<?xml version="1.0"?>
<opencv_storage>
<cascade>
  <stageType>BOOST</stageType>
  <featureType>LBP</featureType>
  <height>24</height>
  <width>24</width>
  <stageParams>
    <boostType>GAB</boostType>
    <minHitRate>9.9500000476837158e-001</minHitRate>
    <maxFalseAlarm>5.0000000000000000e-001</maxFalseAlarm>
    <weightTrimRate>9.4999999999999996e-001</weightTrimRate>
    <maxDepth>1</maxDepth>
    <maxWeakCount>100</maxWeakCount></stageParams>
  <featureParams>
    <maxCatCount>256</maxCatCount></featureParams>
  <stageNum>15</stageNum>
  <stages>
    <!-- stage 0 -->
    <_>
      <maxWeakCount>2</maxWeakCount>
      <stageThreshold>-1.1325007677078247e-001</stageThreshold>
      <weakClassifiers>
        <_>
          <internalNodes>
            0 -1 15 -1 -1025 -639705346 -1284 -1 -1 -262145 -1</internalNodes>
          <leafValues>
            -9.8032784461975098e-001 8.8082617521286011e-001</leafValues></_>
        <_>
          <internalNodes>
            0 -1 20 -16842753 -16843777 -2097153 -2049 -2097153 -65 -1
            -1</internalNodes>
          <leafValues>
            -9.8316836357116699e-001 8.6707776784896851e-001</leafValues></_></weakClassifiers></_>
    <!-- stage 1 -->
    <_>
      <maxWeakCount>3</maxWeakCount>
      <stageThreshold>-1.1286936998367310e+000</stageThreshold>
      <weakClassifiers>
        <_>
          <internalNodes>
            0 -1 54 -1 -34603009 -8388609 -303038465 -1 -1 -67108865
            -318767105</internalNodes>
          <leafValues>
            -8.8892984390258789e-001 7.5880348682403564e-001</leafValues></_>
        <_>
          <internalNodes>
            0 -1 63 -3 -16387 -69468163 -1 -1048587 -4099 -131083 -1</internalNodes>
          <leafValues>
            -9.1010969877243042e-001 6.6325366497039795e-001</leafValues></_>
        <_>
          <internalNodes>
            0 -1 3 -1343291393 -1 -65537 -1644503041 -806420481 -1025
            -589825 -8193</internalNodes>
          <leafValues>
            -8.7372648715972900e-001 6.7034584283828735e-001</leafValues></_></weakClassifiers></_>
    <!-- stage 2 -->
    <_>
      <maxWeakCount>3</maxWeakCount>
      <stageThreshold>-1.1229727268218994e+000</stageThreshold>
      <weakClassifiers>
        <_>
          <internalNodes>
            0 -1 43 -16777473 -1 -524289 -129 -1051649 -16477 -6292481
            -1025</internalNodes>
          <leafValues>
            -8.2227694988250732e-001 7.7545034885406494e-001</leafValues></_>
        <_>
          <internalNodes>
            0 -1 18 -1646404097 -5242881 -93662980 -34670340 -4195329
            -1025 -262657 -1</internalNodes>
          <leafValues>
            -9.0310573577880859e-001 5.9278988838195801e-001</leafValues></_>
        <_>
          <internalNodes>
            0 -1 80 -8430255 -8389633 -546316321 -1 -1153802895
            -67110403 -393891 -13378217</internalNodes>
          <leafValues>
            -8.0356848239898682e-001 6.0240995883941650e-001</leafValues></_></weakClassifiers></_>
    <!-- stage 3 -->
    <_>
      <maxWeakCount>3</maxWeakCount>
      <stageThreshold>-1.1025657653808594e+000</stageThreshold>
      <weakClassifiers>
        <_>
          <internalNodes>
            0 -1 28 -65537 -4456449 -4202625 -2209 -71303233 -67125249
            -8193 -65537</internalNodes>
          <leafValues>
            -8.2569891214370728e-001 6.6408067941665649e-001</leafValues></_>
        <_>
          <internalNodes>
            0 -1 55 -4194305 -8687105 -1619059714 -32772 -1954569281
            -4481025 -8388609 -1</internalNodes>
          <leafValues>
            -7.8225207328796387e-001 6.4665454626083374e-001</leafValues></_>
        <_>
          <internalNodes>
            0 -1 41 -5296369 -16449 -1 -536871457 -67108865 -1074137089
            -4194305 -1615855873</internalNodes>
          <leafValues>
            -9.0489041805267334e-001 5.0538522005081177e-001</leafValues></_></weakClassifiers></_>
    <!-- stage 4 -->
    <_>
      <maxWeakCount>3</maxWeakCount>
      <stageThreshold>-1.2381024360656738e+000</stageThreshold>
      <weakClassifiers>
        <_>
          <internalNodes>
            0 -1 53 -1 -50735265 -23592993 -33687553 -71565313 -4198405
            -11010117 -285212673</internalNodes>
          <leafValues>
            -8.2560473680496216e-001 5.2831184864044189e-001</leafValues></_>
        <_>
          <internalNodes>
            0 -1 5 -65537 -2185217 -44369953 -507970 -2164737 -71525
            -74753 -1</internalNodes>
          <leafValues>
            -8.3025062084197998e-001 5.2366995811462402e-001</leafValues></_>
        <_>
          <internalNodes>
            0 -1 10 -212348585 -673770667 -144805385 -86018 -1726402157
            -217635817 -612899841 -70658</internalNodes>
          <leafValues>
            -8.8203567266464233e-001 4.1775289177894592e-001</leafValues></_></weakClassifiers></_>
    <!-- stage 5 -->
    <_>
      <maxWeakCount>5</maxWeakCount>
      <stageThreshold>-1.3489112854003906e+000</stageThreshold>
      <weakClassifiers>
        <_>
          <internalNodes>
            0 -1 26 -16777217 -1249 -7110889 -13370589 -2097397
            -13141245 -7872733 -2364573</internalNodes>
          <leafValues>
            -8.1468731164932251e-001 5.0927400588989258e-001</leafValues></_>
        <_>
          <internalNodes>
            0 -1 46 -570451489 -1716539249 -251292225 -1376911475
            -6564673 -5246021 -39846913 -319815681</internalNodes>
          <leafValues>
            -7.8990918397903442e-001 4.5377463102340698e-001</leafValues></_>
        <_>
          <internalNodes>
            0 -1 19 -805830657 -8664225 1577058046 -8651781 -1333150209
            -10790081 -541327393 -8406085</internalNodes>
          <leafValues>
            -7.6064497232437134e-001 4.8410299420356750e-001</leafValues></_>
        <_>
          <internalNodes>
            0 -1 22 -1343308289 -3073 -11393 -2177 -69274693 -1066125
            -4261889 -1074003969</internalNodes>
          <leafValues>
            -8.0204731225967407e-001 5.2451783418655396e-001</leafValues></_>
        <_>
          <internalNodes>
            0 -1 78 2147483615 -4718625 -11329 -580911137 -16855972
            -60818340 -1365447974 -1364198465</internalNodes>
          <leafValues>
            -6.7005431652069092e-001 6.9047331809997559e-001</leafValues></_></weakClassifiers></_>
    <!-- stage 6 -->
    <_>
      <maxWeakCount>4</maxWeakCount>
      <stageThreshold>-1.6870748996734619e+000</stageThreshold>
      <weakClassifiers>
        <_>
          <internalNodes>
            0 -1 69 -75236357 -2624517 -1625565185 -549456929 -71304257
            -67384577 -71303169 -515</internalNodes>
          <leafValues>
            -7.6898312568664551e-001 4.5882782340049744e-001</leafValues></_>
        <_>
          <internalNodes>
            0 -1 40 -65537 -9281 -8396801 -67112289 -67126273 -270913
            -65573 -1073742849</internalNodes>
          <leafValues>
            -6.8897354602813721e-001 6.0287421941757202e-001</leafValues></_>
        <_>
          <internalNodes>
            0 -1 51 -4207105 -4457473 -6750980 -33554435 -657348420
            -845971256 -45496867 -585245475</internalNodes>
          <leafValues>
            -7.7997511625289917e-001 4.8373320698738098e-001</leafValues></_>
        <_>
          <internalNodes>
            0 -1 1 -1880174593 -1145402390 -545595393 2147416407
            -805386533 -16778505 -270609409 -8193</internalNodes>
          <leafValues>
            -7.1285140514373779e-001 4.9770644307136536e-001</leafValues></_></weakClassifiers></_>
    <!-- stage 7 -->
    <_>
      <maxWeakCount>5</maxWeakCount>
      <stageThreshold>-2.4769299030303955e+000</stageThreshold>
      <weakClassifiers>
        <_>
          <internalNodes>
            0 -1 27 -67593 -212135613 -216583373 -13380809 -1291603037
            -1287974765 -1291635945 -80508109</internalNodes>
          <leafValues>
            -8.1014865636825562e-001 3.7359097599983215e-001</leafValues></_>
        <_>
          <internalNodes>
            0 -1 56 -823399185 -293396297 -871923073 -293375693
            -276841797 -337436237 -364924937 -286262341</internalNodes>
          <leafValues>
            -8.2925420999526978e-001 4.6491426229476929e-001</leafValues></_>
        <_>
          <internalNodes>
            0 -1 16 -236989985 -930470914 -1712893476 -806380584
            -2136865861 -1946431233 -240940149 -4197377</internalNodes>
          <leafValues>
            -7.0434993505477905e-001 4.6370491385459900e-001</leafValues></_>
        <_>
          <internalNodes>
            0 -1 68 -134620200 -101232193 -38579719 -17537 -603980835
            -809785157 -1145767460 -11151881</internalNodes>
          <leafValues>
            -7.3391932249069214e-001 4.5012378692626953e-001</leafValues></_>
        <_>
          <internalNodes>
            0 -1 58 -812658977 -202377473 -778046477 -239078989
            -1232340229 -75374349 -216942669 -269381</internalNodes>
          <leafValues>
            -6.9342631101608276e-001 5.4964190721511841e-001</leafValues></_></weakClassifiers></_>
    <!-- stage 8 -->
    <_>
      <maxWeakCount>4</maxWeakCount>
      <stageThreshold>-1.7837114334106445e+000</stageThreshold>
      <weakClassifiers>
        <_>
          <internalNodes>
            0 -1 66 -69215233 -136343073 -1286614017 -2100225 -273678337
            -1096054085 -68813057 -655369</internalNodes>
          <leafValues>
            -7.6158940792083740e-001 5.0202506780624390e-001</leafValues></_>
        <_>
          <internalNodes>
            0 -1 6 -76801 -101449 -539086509 -17256161 -80965 -8017
            -5281861 -1</internalNodes>
          <leafValues>
            -8.6952877044677734e-001 3.5534277558326721e-001</leafValues></_>
        <_>
          <internalNodes>
            0 -1 7 -958493139 -175060225 -1395329603 -539102753
            -368181313 -4461829 -355663873 -807534593</internalNodes>
          <leafValues>
            -7.3345971107482910e-001 4.1294381022453308e-001</leafValues></_>
        <_>
          <internalNodes>
            0 -1 13 -4353 15418990 -1063844353 1308606607 -1147434497
            213641867 -548697453 -873469233</internalNodes>
          <leafValues>
            -6.4400517940521240e-001 5.0701791048049927e-001</leafValues></_></weakClassifiers></_>
    <!-- stage 9 -->
    <_>
      <maxWeakCount>5</maxWeakCount>
      <stageThreshold>-1.4969236850738525e+000</stageThreshold>
      <weakClassifiers>
        <_>
          <internalNodes>
            0 -1 60 -83624045 -70272001 -210652161 -100691201 -113118209
            -1734369045 -72222017 -67112193</internalNodes>
          <leafValues>
            -6.7199718952178955e-001 5.0553506612777710e-001</leafValues></_>
        <_>
          <internalNodes>
            0 -1 23 1366692115 1395855667 1365643642 1937641526
            -2062352077 -1290599933 -1288236749 -847821</internalNodes>
          <leafValues>
            -8.8413363695144653e-001 3.3246672153472900e-001</leafValues></_>
        <_>
          <internalNodes>
            0 -1 21 1073618431 2147480543 -2656801 2071951827
            -1346652229 -4551233 1003731967 -7197769</internalNodes>
          <leafValues>
            -6.5832990407943726e-001 5.0080549716949463e-001</leafValues></_>
        <_>
          <internalNodes>
            0 -1 33 -1102033 -708450827 -242092545 -570437121 -779422465
            -939723638 -1467420161 -807410177</internalNodes>
          <leafValues>
            -7.7942794561386108e-001 4.1618964076042175e-001</leafValues></_>
        <_>
          <internalNodes>
            0 -1 24 285409283 -550305513 16842771 -34668269 65536
            -1290731519 1124270337 15667723</internalNodes>
          <leafValues>
            -8.3970260620117188e-001 3.8469398021697998e-001</leafValues></_></weakClassifiers></_>
    <!-- stage 10 -->
    <_>
      <maxWeakCount>6</maxWeakCount>
      <stageThreshold>-2.1043896675109863e+000</stageThreshold>
      <weakClassifiers>
        <_>
          <internalNodes>
            0 -1 70 -79430917 1930673552 -551970821 -585106445
            -106189825 -1148206425 -1076903937 -3</internalNodes>
          <leafValues>
            -7.2365826368331909e-001 4.2556509375572205e-001</leafValues></_>
        <_>
          <internalNodes>
            0 -1 0 -2113152773 -269500166 -1343291649 -269498370 -1 -73
            -1025 2147483615</internalNodes>
          <leafValues>
            -7.1543383598327637e-001 3.8069114089012146e-001</leafValues></_>
        <_>
          <internalNodes>
            0 -1 79 -36 -141566753 -67379201 -134480385 -9956 2134854015
            -4259970 -16062325</internalNodes>
          <leafValues>
            -6.7543190717697144e-001 4.5789164304733276e-001</leafValues></_>
        <_>
          <internalNodes>
            0 -1 30 -719597065 -208563298 320593148 2139086076
            -1073708773 -2130476927 143751101 -513</internalNodes>
          <leafValues>
            -8.7511819601058960e-001 3.2191357016563416e-001</leafValues></_>
        <_>
          <internalNodes>
            0 -1 71 -309080069 -1162116477 -2008980993 -108052225
            -106175493 -604010305 -319890433 -335822851</internalNodes>
          <leafValues>
            -6.6175431013107300e-001 4.6908575296401978e-001</leafValues></_>
        <_>
          <internalNodes>
            0 -1 77 2077228831 -640957973 -2138334405 1426833915 -111524
            -74735463 -89469234 -14693793</internalNodes>
          <leafValues>
            -6.8244177103042603e-001 4.5408508181571960e-001</leafValues></_></weakClassifiers></_>
    <!-- stage 11 -->
    <_>
      <maxWeakCount>9</maxWeakCount>
      <stageThreshold>-3.1808192729949951e+000</stageThreshold>
      <weakClassifiers>
        <_>
          <internalNodes>
            0 -1 37 823358267 1965757331 991630643 -269544461 320049521
            -1154285261 -1322036805 -17828941</internalNodes>
          <leafValues>
            -7.5442546606063843e-001 3.1704029440879822e-001</leafValues></_>
        <_>
          <internalNodes>
            0 -1 52 -17826881 -286350477 -1103349417 -58952829
            -1079776981 -57053 -1087145133 -1097</internalNodes>
          <leafValues>
            -7.1156710386276245e-001 4.1491889953613281e-001</leafValues></_>
        <_>
          <internalNodes>
            0 -1 8 -1880167681 -1414616406 -458913 463601803 -1114177
            -4207733 -942212353 -805314561</internalNodes>
          <leafValues>
            -7.2161680459976196e-001 4.0618929266929626e-001</leafValues></_>
        <_>
          <internalNodes>
            0 -1 72 -163 -4201843 -1433695283 -14947643 -1414829059
            -89414997 166399149 1876946863</internalNodes>
          <leafValues>
            -7.3590517044067383e-001 3.5761380195617676e-001</leafValues></_>
        <_>
          <internalNodes>
            0 -1 36 273896183 -111863533 1058214707 -303082645
            -1825504461 -1280113769 856925107 -286264397</internalNodes>
          <leafValues>
            -7.6200318336486816e-001 4.0758797526359558e-001</leafValues></_>
        <_>
          <internalNodes>
            0 -1 49 -10530729 12713986 1359073563 18809731 -1878294013
            19599659 -1593618397 332335891</internalNodes>
          <leafValues>
            -7.5656497478485107e-001 3.6388671398162842e-001</leafValues></_>
        <_>
          <internalNodes>
            0 -1 57 -270577937 -10532385 -413667587 -2658853 -70258817
            -16015987 -70648881 -13930513</internalNodes>
          <leafValues>
            -5.8123624324798584e-001 5.1656740903854370e-001</leafValues></_>
        <_>
          <internalNodes>
            0 -1 34 -1073815553 -5352461 -2095898573 -9469665 -100269917
            -75103999 -1911938293 -1075056785</internalNodes>
          <leafValues>
            -7.8973907232284546e-001 3.6830982565879822e-001</leafValues></_>
        <_>
          <internalNodes>
            0 -1 29 1069039100 -1073769613 -686489263 -2109137
            -1684887109 -1082154981 -1962439765 -1117797</internalNodes>
          <leafValues>
            -7.8010225296020508e-001 3.8526529073715210e-001</leafValues></_></weakClassifiers></_>
    <!-- stage 12 -->
    <_>
      <maxWeakCount>12</maxWeakCount>
      <stageThreshold>-5.9109153747558594e+000</stageThreshold>
      <weakClassifiers>
        <_>
          <internalNodes>
            0 -1 65 -170864453 -6352461 -751718209 -535041 -1204046917
            -72673041 -235818497 -557065</internalNodes>
          <leafValues>
            -7.0204514265060425e-001 3.3446264266967773e-001</leafValues></_>
        <_>
          <internalNodes>
            0 -1 42 -134217845 -202134597 -105646145 -209978881
            -106908693 -257249112 -249384517 -205810989</internalNodes>
          <leafValues>
            -6.4481586217880249e-001 4.3732687830924988e-001</leafValues></_>
        <_>
          <internalNodes>
            0 -1 14 -892550936 -454276916 -935302968 -825372947
            -85398274 -873673733 -83035207 -135169</internalNodes>
          <leafValues>
            -6.5539181232452393e-001 4.4874411821365356e-001</leafValues></_>
        <_>
          <internalNodes>
            0 -1 35 1941320639 -1279585998 36081979 859451762
            -1324150477 1897074707 859033971 -1288458190</internalNodes>
          <leafValues>
            -6.4718067646026611e-001 3.9816150069236755e-001</leafValues></_>
        <_>
          <internalNodes>
            0 -1 74 -4195329 -611614077 56070367 -1284506989 -335545698
            -1174691670 -73597186 -67108865</internalNodes>
          <leafValues>
            -6.1928641796112061e-001 6.8447387218475342e-001</leafValues></_>
        <_>
          <internalNodes>
            0 -1 44 -1 1071116791 -1528969761 -1349135915 -754714945
            -73217983 -628360231 -555746353</internalNodes>
          <leafValues>
            -7.4364894628524780e-001 4.9308985471725464e-001</leafValues></_>
        <_>
          <internalNodes>
            0 -1 50 -1986265089 -136752197 -138551810 -8705 -909116741
            -23383109 -855320325 -538977025</internalNodes>
          <leafValues>
            -8.2616943120956421e-001 1.5278664231300354e-001</leafValues></_>
        <_>
          <internalNodes>
            0 -1 74 -4195329 -611605877 56070367 -1283458917 -336594274
            -1715760981 -69402882 -1</internalNodes>
          <leafValues>
            -7.1254450082778931e-001 5.0863325595855713e-001</leafValues></_>
        <_>
          <internalNodes>
            0 -1 75 -4498433 -1815408182 319496255 -249607821 -536872742
            -1800679253 -357630242 -809522177</internalNodes>
          <leafValues>
            -7.5012278556823730e-001 3.9864337444305420e-001</leafValues></_>
        <_>
          <internalNodes>
            0 -1 74 -205554689 -611605879 56070364 -1283458533
            -469763442 -1175736150 -86179858 -67108865</internalNodes>
          <leafValues>
            -7.7155053615570068e-001 4.3786290287971497e-001</leafValues></_>
        <_>
          <internalNodes>
            0 -1 0 32944 -278502988 -960339233 -280543132 -9442833
            -5525623 -615792641 2147479487</internalNodes>
          <leafValues>
            -9.3752497434616089e-001 2.7060100808739662e-002</leafValues></_>
        <_>
          <internalNodes>
            0 -1 38 1138094235 1394810897 805446021 1498108869 170647555
            177193987 33961307 -67120469</internalNodes>
          <leafValues>
            -8.8068294525146484e-001 4.6504417061805725e-001</leafValues></_></weakClassifiers></_>
    <!-- stage 13 -->
    <_>
      <maxWeakCount>15</maxWeakCount>
      <stageThreshold>-5.4373092651367187e+000</stageThreshold>
      <weakClassifiers>
        <_>
          <internalNodes>
            0 -1 9 -65537 -466952 -313043493 -613908260 -77661253
            -279669 -639181825 -1</internalNodes>
          <leafValues>
            -7.4091905355453491e-001 2.0785903930664063e-001</leafValues></_>
        <_>
          <internalNodes>
            0 -1 31 -787260929 -246214313 2033221118 -44199694
            -1845362433 -879812464 -1191140353 -275717</internalNodes>
          <leafValues>
            -8.3343797922134399e-001 2.6999089121818542e-001</leafValues></_>
        <_>
          <internalNodes>
            0 -1 76 -67372193 -572540931 -842811393 334214039 -67478180
            1538214685 -341247137 -281023649</internalNodes>
          <leafValues>
            -5.8888351917266846e-001 4.2864987254142761e-001</leafValues></_>
        <_>
          <internalNodes>
            0 -1 59 -1014281253 -942997289 -980814881 -607652953
            -610278465 -108322629 -880018949 -70258021</internalNodes>
          <leafValues>
            -5.6933939456939697e-001 4.7161847352981567e-001</leafValues></_>
        <_>
          <internalNodes>
            0 -1 59 -1014281253 -942997289 -980814881 -607652953
            -610278465 -108322629 -877921797 -70258021</internalNodes>
          <leafValues>
            -5.7098799943923950e-001 4.8194280266761780e-001</leafValues></_>
        <_>
          <internalNodes>
            0 -1 9 -73729 -2565128 -850964069 -747077412 -77685829
            -67390581 -647062789 -262145</internalNodes>
          <leafValues>
            -6.6588741540908813e-001 4.0953579545021057e-001</leafValues></_>
        <_>
          <internalNodes>
            0 -1 59 -1014281253 -959774521 -980823073 -607652937
            -610278465 -108322629 -880018949 -70258021</internalNodes>
          <leafValues>
            -6.6186237335205078e-001 4.3221613764762878e-001</leafValues></_>
        <_>
          <internalNodes>
            0 -1 4 -268764161 -136355637 -544861921 603603151 -112804945
            -891318133 -2717505 -2162721</internalNodes>
          <leafValues>
            -9.3667781352996826e-001 4.2240347713232040e-002</leafValues></_>
        <_>
          <internalNodes>
            0 -1 4 -268764161 -136355637 -544861921 603603151 -112804945
            -891318133 -2717505 -2162721</internalNodes>
          <leafValues>
            -9.5638579130172729e-001 7.8048005700111389e-002</leafValues></_>
        <_>
          <internalNodes>
            0 -1 64 454787483 722673925 151455793 1397949835 34540203
            722141323 -2095338565 1600599007</internalNodes>
          <leafValues>
            -8.7579458951950073e-001 2.1929170191287994e-001</leafValues></_>
        <_>
          <internalNodes>
            0 -1 0 147600 -825311048 -1939201921 655303716 -7627601
            -378227 -1278478401 2147220157</internalNodes>
          <leafValues>
            -9.8846757411956787e-001 8.4216885268688202e-002</leafValues></_>
        <_>
          <internalNodes>
            0 -1 0 147600 -829538248 -1939201409 621749284 -74801489
            -378235 -1815353409 2140928669</internalNodes>
          <leafValues>
            -9.9554818868637085e-001 9.9988110363483429e-002</leafValues></_>
        <_>
          <internalNodes>
            0 -1 48 -804539809 -710213617 1167969 1364657173 402817730
            51323466 36412375 -4214277</internalNodes>
          <leafValues>
            -9.9088978767395020e-001 4.2107564210891724e-001</leafValues></_>
        <_>
          <internalNodes>
            0 -1 47 72376344 286064640 100696240 1460731912 -1610087678
            -2013200384 33554655 531103744</internalNodes>
          <leafValues>
            -9.9389612674713135e-001 7.2565811872482300e-001</leafValues></_>
        <_>
          <internalNodes>
            0 -1 39 -1291501440 1914290176 65571 1090732049 1073905674
            21528586 403735107 456898047</internalNodes>
          <leafValues>
            -9.9213021993637085e-001 5.7548046112060547e-001</leafValues></_></weakClassifiers></_>
    <!-- stage 14 -->
    <_>
      <maxWeakCount>13</maxWeakCount>
      <stageThreshold>-6.2918424606323242e+000</stageThreshold>
      <weakClassifiers>
        <_>
          <internalNodes>
            0 -1 17 -1861495297 2005995965 -1808179714 -6434337 16823005
            -83881856 -2012555009 -67126277</internalNodes>
          <leafValues>
            -8.2893770933151245e-001 2.7389425039291382e-001</leafValues></_>
        <_>
          <internalNodes>
            0 -1 32 -17318273 -16661757 -2122243255 -16670463 -83779071
            -217903102 2030108931 -486284542</internalNodes>
          <leafValues>
            -6.5615022182464600e-001 3.9505574107170105e-001</leafValues></_>
        <_>
          <internalNodes>
            0 -1 62 -1826946853 -1693773301 34275411 287248855 455809195
            -1894902014 1259066299 1528034239</internalNodes>
          <leafValues>
            -5.9230816364288330e-001 4.5252084732055664e-001</leafValues></_>
        <_>
          <internalNodes>
            0 -1 67 -251615272 -654106288 1082263057 -1055700197
            -850549826 -1165385540 -643104341 -4214787</internalNodes>
          <leafValues>
            -7.3392105102539063e-001 3.9965793490409851e-001</leafValues></_>
        <_>
          <internalNodes>
            0 -1 67 -251615272 -654106288 1082131985 -1055700197
            -850549826 -1165385540 -643104341 -4214787</internalNodes>
          <leafValues>
            -7.4285465478897095e-001 3.8785016536712646e-001</leafValues></_>
        <_>
          <internalNodes>
            0 -1 67 -251615272 -654106288 1082131985 -1055700197
            -850549826 -1165385540 -643104341 -4214787</internalNodes>
          <leafValues>
            -7.6577490568161011e-001 3.8785016536712646e-001</leafValues></_>
        <_>
          <internalNodes>
            0 -1 12 -857995128 -931077948 134255897 -843201335
            -116018193 -1659045744 -637521363 -269498133</internalNodes>
          <leafValues>
            -7.5264167785644531e-001 2.6352071762084961e-001</leafValues></_>
        <_>
          <internalNodes>
            0 -1 11 -1061109512 -842216196 1174469085 -2237063
            -2114389092 -833060480 1738863377 -813699345</internalNodes>
          <leafValues>
            -7.7648216485977173e-001 2.9967099428176880e-001</leafValues></_>
        <_>
          <internalNodes>
            0 -1 73 -84030241 -540819045 -782645223 -73674337 -85014321
            2141138091 -588756709 -71435265</internalNodes>
          <leafValues>
            -8.2458019256591797e-001 3.0894747376441956e-001</leafValues></_>
        <_>
          <internalNodes>
            0 -1 61 453214867 1798554449 277893591 1527861521
            -1861776677 -385679325 521262063 -13372449</internalNodes>
          <leafValues>
            -9.2642229795455933e-001 1.6205842792987823e-001</leafValues></_>
        <_>
          <internalNodes>
            0 -1 25 -874438613 215023624 8388897 1431765337 33759235
            301940866 -2097145302 -549518925</internalNodes>
          <leafValues>
            -9.5310860872268677e-001 2.4416121840476990e-001</leafValues></_>
        <_>
          <internalNodes>
            0 -1 2 -2059277583 -79060017 -2048600880 2144316548
            -1400120945 -74855023 1653799329 -269491467</internalNodes>
          <leafValues>
            -9.6981859207153320e-001 3.3819755911827087e-001</leafValues></_>
        <_>
          <internalNodes>
            0 -1 45 -217984995 -268365566 2064712209 -250269439
            856760593 420544768 855707905 -298617983</internalNodes>
          <leafValues>
            -9.8387169837951660e-001 4.8672094941139221e-001</leafValues></_></weakClassifiers></_></stages>
  <features>
    <_>
      <rect>
        0 0 1 1</rect></_>
    <_>
      <rect>
        0 0 1 6</rect></_>
    <_>
      <rect>
        0 0 2 2</rect></_>
    <_>
      <rect>
        0 0 2 6</rect></_>
    <_>
      <rect>
        0 0 2 7</rect></_>
    <_>
      <rect>
        0 0 2 8</rect></_>
    <_>
      <rect>
        0 0 3 8</rect></_>
    <_>
      <rect>
        0 0 7 2</rect></_>
    <_>
      <rect>
        0 3 1 5</rect></_>
    <_>
      <rect>
        0 3 1 7</rect></_>
    <_>
      <rect>
        0 9 7 5</rect></_>
    <_>
      <rect>
        0 12 2 4</rect></_>
    <_>
      <rect>
        0 12 3 4</rect></_>
    <_>
      <rect>
        0 14 4 3</rect></_>
    <_>
      <rect>
        0 15 2 3</rect></_>
    <_>
      <rect>
        0 15 8 3</rect></_>
    <_>
      <rect>
        0 17 5 2</rect></_>
    <_>
      <rect>
        0 17 8 1</rect></_>
    <_>
      <rect>
        0 18 7 2</rect></_>
    <_>
      <rect>
        0 18 8 1</rect></_>
    <_>
      <rect>
        1 0 5 7</rect></_>
    <_>
      <rect>
        1 5 2 3</rect></_>
    <_>
      <rect>
        2 2 2 5</rect></_>
    <_>
      <rect>
        2 5 6 6</rect></_>
    <_>
      <rect>
        2 8 4 5</rect></_>
    <_>
      <rect>
        2 14 3 3</rect></_>
    <_>
      <rect>
        3 0 4 6</rect></_>
    <_>
      <rect>
        3 1 5 6</rect></_>
    <_>
      <rect>
        3 4 2 4</rect></_>
    <_>
      <rect>
        3 5 2 3</rect></_>
    <_>
      <rect>
        3 15 6 3</rect></_>
    <_>
      <rect>
        3 16 7 1</rect></_>
    <_>
      <rect>
        4 0 4 5</rect></_>
    <_>
      <rect>
        4 0 6 3</rect></_>
    <_>
      <rect>
        4 2 2 5</rect></_>
    <_>
      <rect>
        4 5 5 5</rect></_>
    <_>
      <rect>
        4 9 4 3</rect></_>
    <_>
      <rect>
        4 10 4 3</rect></_>
    <_>
      <rect>
        4 13 1 3</rect></_>
    <_>
      <rect>
        4 16 1 2</rect></_>
    <_>
      <rect>
        5 0 1 6</rect></_>
    <_>
      <rect>
        5 2 6 3</rect></_>
    <_>
      <rect>
        5 4 6 3</rect></_>
    <_>
      <rect>
        6 1 3 5</rect></_>
    <_>
      <rect>
        6 3 2 2</rect></_>
    <_>
      <rect>
        6 8 3 3</rect></_>
    <_>
      <rect>
        6 10 3 2</rect></_>
    <_>
      <rect>
        6 11 1 1</rect></_>
    <_>
      <rect>
        6 14 1 3</rect></_>
    <_>
      <rect>
        6 14 2 3</rect></_>
    <_>
      <rect>
        6 18 4 2</rect></_>
    <_>
      <rect>
        6 18 5 2</rect></_>
    <_>
      <rect>
        7 4 2 5</rect></_>
    <_>
      <rect>
        7 8 2 3</rect></_>
    <_>
      <rect>
        7 9 2 3</rect></_>
    <_>
      <rect>
        7 12 4 4</rect></_>
    <_>
      <rect>
        8 6 2 4</rect></_>
    <_>
      <rect>
        9 1 2 2</rect></_>
    <_>
      <rect>
        9 3 3 4</rect></_>
    <_>
      <rect>
        9 6 3 3</rect></_>
    <_>
      <rect>
        11 3 2 5</rect></_>
    <_>
      <rect>
        11 4 1 5</rect></_>
    <_>
      <rect>
        11 7 1 3</rect></_>
    <_>
      <rect>
        12 3 4 7</rect></_>
    <_>
      <rect>
        12 8 1 3</rect></_>
    <_>
      <rect>
        12 11 3 2</rect></_>
    <_>
      <rect>
        12 11 3 3</rect></_>
    <_>
      <rect>
        13 11 1 4</rect></_>
    <_>
      <rect>
        13 11 3 3</rect></_>
    <_>
      <rect>
        13 12 1 4</rect></_>
    <_>
      <rect>
        13 13 1 3</rect></_>
    <_>
      <rect>
        14 10 1 4</rect></_>
    <_>
      <rect>
        15 2 3 6</rect></_>
    <_>
      <rect>
        16 10 2 2</rect></_>
    <_>
      <rect>
        17 6 2 6</rect></_>
    <_>
      <rect>
        17 8 2 5</rect></_>
    <_>
      <rect>
        18 7 2 4</rect></_>
    <_>
      <rect>
        18 7 2 5</rect></_>
    <_>
      <rect>
        18 8 2 5</rect></_>
    <_>
      <rect>
        18 11 2 2</rect></_>
    <_>
      <rect>
        21 3 1 7</rect></_></features></cascade>
</opencv_storage>
